
\data\
ngram 1=21
ngram 2=24
ngram 3=0
ngram 4=0
ngram 5=0
ngram 6=0

\1-grams:
-0.9444827	</s>
-99	<s>	-0.08894112
-1.166331	AN	-0.01189923
-1.342423	D	-0.01279687
-1.342423	IM	-0.02326231
-1.342423	ING	-0.02326231
-1.342423	ME	-0.02326231
-1.342423	O	0.008922378
-1.342423	R	-0.02326231
-1.342423	S	0.008922378
-1.342423	TER	0.008922378
-1.342423	Y	-0.01279687
-1.342423	▁ADAM	-0.02326231
-1.342423	▁BE	-0.02326231
-1.342423	▁BR	-0.02326231
-1.342423	▁CA	-0.02326231
-1.342423	▁HARRY	-0.02326231
-1.342423	▁JA	-0.02326231
-1.342423	▁JO	-0.02326231
-1.342423	▁MICHAEL	-0.02326231
-1.342423	▁POT	-0.02326231

\2-grams:
-1.079181	<s> ▁BE
-1.079181	<s> ▁BR
-1.079181	<s> ▁HARRY
-1.079181	<s> ▁MICHAEL
-1.041393	AN </s>
-1.041393	AN ▁ADAM
-1.021189	D AN
-1.021189	IM ING
-1.021189	ING ▁CA
-1.021189	ME ▁POT
-1.021189	O </s>
-1.021189	R D
-1.021189	S </s>
-1.021189	TER </s>
-1.021189	Y AN
-1.021189	▁ADAM S
-1.021189	▁BE IM
-1.021189	▁BR Y
-1.021189	▁CA O
-1.021189	▁HARRY ▁JA
-1.021189	▁JA ME
-1.021189	▁JO R
-1.021189	▁MICHAEL ▁JO
-1.021189	▁POT TER

\3-grams:

\4-grams:

\5-grams:

\6-grams:

\end\
